4
2 30
0,77360071183768 -0,90986885664636 
0,286025508325083 -0,0200355607652714 
-0,630124526524752 -0,0149048393731598 
-0,222560444951907 1,04099645967902 
1,01879816466578 0,173865570860206 
0,599117713405981 0,00858062792435664 
-0,835504345713474 0,20890786056548 
-0,745148198718617 0,744296631389547 
-0,975795168178885 -0,0392990024723807 
0,160583159104446 -0,235554562780394 
-0,544270323391037 0,990716015184955 
-0,558469542835067 -0,488450561620946 
0,660162538976369 0,491513479558998 
0,164732849698135 0,882801411063665 
-0,265184344027591 0,945049839153575 
-0,334539088285406 -0,788082966888765 
-0,580538525247169 -0,664975815361639 
-0,0362663043477433 0,944466818627236 
0,950002610513638 0,171424398184366 
-0,212989554902304 0,996934153091222 
-0,0718811189817041 -1,00752286422089 
0,43261726370743 -0,555946145055745 
-0,0258343841526767 -0,328522684509663 
0,792089109249682 0,493562066338554 
-0,0484974731756759 0,0846418579433534 
0,31147850254747 0,329729907761982 
-0,0112160104494893 0,242728387940015 
1,02909407142246 -0,357685033957477 
0,915424540917998 -0,389067044919426 
0,525041832785797 -0,374258101601486 
-0,566885997803517 -0,852478146482014 -0,27358513820546 0,417426025270754 0,528934285725096 0,051423252468072 0,297250230551841 -1,02461097176582 0,0839500463998485 1,17230435586551 0,0235312875775176 0,179646078909341 0,377225941824574 0,1972343267874 0,332402622907422 0,221885723194432 -0,75116860894829 -0,52641892208386 -0,538779584626787 -0,615539710990606 0,191025475347242 -0,662645363892995 -0,891422394433855 0,0511515406027486 0,482830583740499 0,509631219277816 -0,524199905441782 -0,260142279648985 0,981151945606909 0,521473303132847 
30 20
0,543501294812782 -0,393229815666642 -0,150464490246528 0,081232291118959 0,378619152173224 -0,258618278652485 -0,339711012548698 -0,652208954564771 -0,625266197928603 0,20866240765933 -0,592601682819194 0,00686903828200967 0,0841144140670344 0,0821826641515648 -0,383486770671334 0,444588795452614 -0,472070044467648 -0,313391039077034 0,184747559358958 -0,490398086884727 0,421276855953499 0,376914172434826 -0,0575896638576315 -0,078589790856048 -0,0607724612707786 -0,00088615012740289 -0,0667289553950971 0,480034124665699 0,605741645710696 0,52583459261676 
-0,139928397335959 0,353519656705657 0,405685487983432 0,227839168361513 -0,137012762690637 0,293837896502199 0,377519259563534 0,56583033582819 0,121168991676888 -0,10274882947992 0,14665903697826 0,0960404614214508 0,444475119129683 0,52314347654817 0,575070753558808 0,24958759152901 0,171038241802129 0,314899598635355 -0,454164992912241 0,370367329833663 -0,0151337080217894 0,394969230589339 0,0205841602491427 -0,0805253809846196 -0,42939096955276 0,0638976061604224 -0,188357824340823 -0,343076984800886 -0,508687651909736 -0,156249178524294 
0,0260247835003836 -0,191991853691141 0,0798163547802241 0,235300482475563 0,163818892372591 0,312149494769755 -0,541910138629186 0,31402259123298 -0,651538632409794 -0,34974372599307 0,0397922076438684 -0,612401866822058 0,438686238488168 -0,159640499604891 -0,286301464990625 -0,205299577223547 -0,192234781819222 0,182423249001127 0,309286149605564 0,488325388931369 -0,533595439817693 0,157203662050134 -0,229113363043753 -0,0659486788383217 -0,0223536043960369 -0,146759985977925 -0,104079770089395 0,210852770841644 0,361335368794976 0,241953322141195 
-0,154443115077136 -0,603992275032801 0,523881867998382 0,505243989831884 -0,121313791346155 -0,296237205813827 -0,0326905568155434 -0,11795136440568 0,657497552398694 0,185157131215205 -0,394614509057557 -0,26462443177628 -0,174484896432945 -0,463970452216164 0,399760414763386 0,327338937412195 -0,290902146199615 0,256759905813032 -0,590802273281516 0,304228405987432 0,333295051816893 0,039244823908217 0,0401468953675738 -0,152958236401406 0,507228204860133 0,380443909596207 -0,168898070882432 -0,504430576812692 -0,267164409658226 -0,0579163774260768 
0,463841413843042 -0,141846731876548 0,322901201860044 -0,703512440526235 -0,473933912945004 0,327181652106576 -0,196865657830234 0,200225907791381 -0,255151479329633 -0,508116890112896 -0,47854092835074 0,213632769089904 -0,430141202297464 -0,720760563039359 -0,262630234941371 0,414477975444621 -0,01043876111758 0,0699818392144009 0,0971264279206058 -0,382696624278226 0,399941184475826 0,444034637568573 0,536463839363207 -0,00619472386608448 0,276321250990236 -0,262928629035393 -0,0528609113575849 -0,38823711532349 -0,0261056992846279 0,40333284772488 
-0,362260146508187 -0,111312704901094 -0,448810869251549 -0,316129836881074 0,408400797737616 0,108831290804372 0,477697317565357 0,159206501764719 0,332516091367558 0,547627172563504 -0,363368842631374 0,464572146916275 0,307631197555322 0,132646040696894 0,45353531112747 -0,0514429343535911 -0,113942024032779 -0,137491177736078 -0,379758677126129 -0,437878654558052 0,0444920276455172 0,109240711485242 -0,307450011040684 0,325287018645937 -0,36927772661716 -0,0419196246983391 -0,402515457665811 -0,251963153275978 0,317681086813256 -0,0770407310779915 
-0,404423359071852 -0,167091891534185 0,527682033598248 -0,510468024072924 -0,626050307244025 -0,478382401339199 0,435204384323145 0,373776710043129 -0,0629844327607079 -0,357384465801946 0,429414242809298 0,26938971873143 -0,35451970237759 -0,0725425381611416 0,261443003274185 -0,307876949507914 0,708947757668053 0,355726446651835 0,412956682941966 -0,368728360185174 0,136801962942062 -0,103515276754267 0,299485111921208 -0,00797769497506033 0,0223465566436755 -0,479258399503158 -0,147335443523187 -0,51336151314435 -0,26679691865431 -0,213857929864049 
-0,380182347485306 0,0766707221704124 -0,040626566545353 0,629502679927335 0,367596359294853 0,458219599071029 -0,0911647395350465 0,268810714183492 -0,508899647270665 0,193472350104717 0,222282112060726 0,215195531743842 0,668887474439273 0,34421835275962 0,518704559945799 -0,655442184778619 -0,588928884883212 -0,152885155872533 0,0150697267667444 -0,29007131756824 -0,340658906057967 0,199129331822817 -0,244294290585641 0,496454662653678 0,274850052559186 0,284235938500616 -0,194152888267331 0,193718413249086 0,546134538086351 0,37789966312935 
-0,477649679476599 0,341117827557451 0,032519811331709 0,410162882495967 -0,454341958070874 0,119765337063235 0,171260515725239 -0,230352530504605 -0,0915749298544397 -0,129959257564477 -0,31369092929496 0,254487892041596 -0,160265349443366 0,387657568928255 0,110431150128484 0,411601941781077 -0,478961027731561 0,0610119021394881 -0,405959123794555 -0,447303785915373 0,402482351139684 -0,423088127956001 -0,358166503500248 -0,104315319514017 -0,0889099860168631 -0,310350305443279 0,405176037092431 -0,475476745242497 -0,519112148785186 0,0455507021275692 
0,552581318475947 0,117811509200506 0,488038269967612 -0,240250318664625 -0,579360421522118 -0,080005807129203 0,338775541254766 0,268942922963523 -0,187333268220848 0,0627849904200938 -0,618015955977747 0,517556908231163 0,164539547052312 -0,482830243366269 -0,746352488782919 0,461902017669638 0,586927007198697 -0,226421490667427 0,202071052694778 -0,199763136985324 0,593420770060487 0,43093149445031 0,469158520770017 0,108350181162492 -0,60170186448572 0,0195337995567443 0,470162633087075 -0,00200563622726273 0,325834168012729 0,281307410773519 
-0,357008830394949 0,169590367754526 -0,0837265026432146 -0,425367590492782 -0,469087091173782 -0,194645902926544 -0,0418504392974741 0,154430471364422 0,0895426686489031 -0,456412195360496 0,423911560072177 0,472764386845656 -0,352648260250668 0,296091391034074 -0,372669042003043 -0,0269197950083377 -0,0803678215986759 -0,20589364868296 -0,338108221598455 -0,356493881673941 0,487811535253825 -0,0984776780544174 -0,0948391844473451 -0,564173279234722 -0,298325239560295 0,0140374201617638 -0,244698057853703 -0,0912507156466751 -0,338743813553876 -0,0683709581847939 
0,154542402752005 0,163144468205743 -0,0722554504411295 0,445820731717407 -0,181815581923314 -0,0386136486908755 -0,389575291046302 0,506700292397091 -0,103293657575439 -0,241092821242119 0,412375657065921 -0,387641470354009 -0,250346017812216 0,601907067251947 0,447675228629212 -0,357662555985101 0,289082680664561 0,719577157152707 0,00690866659284857 0,585879697084782 -0,679940418273476 0,081101742276796 0,338784590278066 0,0618109749879495 0,205258303159898 -0,156889573677818 -0,153355580485362 0,423742304773891 -0,154896213011397 -0,448188517500373 
-0,243605513830967 0,574910810605506 0,158738255110278 -0,322427736127864 -0,0825758086686435 0,380675014446946 -0,509306507380801 0,496771494908551 0,262311934986422 -0,604698198045055 -0,0188376073185008 0,2364929238684 0,0726479405120807 -0,420611912469868 -0,494120146871477 -0,326811609313157 -0,257601142823801 -0,109898415745312 -0,158530419678571 0,00565469250922201 0,201227235008653 -0,34594638392884 0,401194870919274 -0,12980186121976 -0,473214197548496 0,147686417856413 0,537821755537883 -0,276721303833561 -0,573281560163096 -0,136299780179974 
-0,646778905244318 -0,330516828961631 0,260903789654088 0,296502698607411 -0,212424704734854 -0,137261116799753 0,505242990377939 -0,0939537588411096 0,223122739790826 0,34072355225973 0,780844446056236 0,0516672012924724 0,180728143884509 0,0895223581327851 0,445821219440818 -0,343411512265972 -0,24030879270759 0,310033045803477 -0,567645773700362 0,553359826280226 -0,0825477887160737 -0,503518002490326 0,0944971305604742 -0,413585737956235 -0,172206471607621 -0,287575899171648 -0,156184193523895 -0,748731781094675 0,141729401916054 0,354894850983944 
0,436838885900216 0,171581644463417 0,444881473304294 -0,197064395898258 -0,150888920555797 0,325835388063088 0,031680080455225 0,478443175841975 0,373683012405965 -0,364844076203676 0,360794614600772 0,221487132149615 0,0845540889087908 0,164538773960317 -0,0217384584973477 -0,502681741287722 0,478802992430872 -0,0246579903099899 0,0795596264359261 0,369353007894568 -0,171696379634811 0,535257368913192 0,03253670941796 0,0223886015080798 0,36085296839744 -0,144676373829138 0,120389115931519 -0,027827128013356 -0,579512332168425 -0,507504928749741 
0,663046622694225 0,215958813125683 0,221603507650479 -0,675695582499569 0,502395881772451 0,410356827902559 -0,544928379800464 -0,260761411066463 -0,417788142434411 0,100590153527558 -0,741465147348256 -0,204983177457921 0,059873237059256 0,00167294196618026 -0,211049152025482 -0,318323856007919 0,0305953419764415 0,0431573480431208 -0,209415610880904 -0,116247822103142 0,340842978057928 -0,139471485448832 -0,00856338248229958 0,141302335972131 0,284534691073155 -0,404660593582516 -0,272044663901343 0,153998078541563 -0,487589278391511 -0,0436797673148411 
0,0251269021465828 0,135215412384991 0,0365335504358216 -0,428358654775754 -0,208793135841679 0,440392556009801 0,13044040885629 -0,121955979516517 -0,353514654450384 0,388551709516998 -0,404069527783566 -0,0533208130185117 0,391502025455711 -0,310882093450144 -0,00355773300563212 0,409445545108565 0,526755584074958 -0,362890757111942 -0,206619030352298 -0,671546844801258 0,544401099647863 -0,437610181808287 0,115886737111343 -0,472449538246967 0,2408162374422 -0,234301392913182 -0,50840599358451 -0,313360978095766 0,47767233346299 0,260107364627586 
-0,380952326376401 0,199493323235772 0,0568891484918614 0,129420789174692 0,381113123554803 0,553771842690273 -0,00882843467673903 -0,445005330424749 -0,366306795905663 0,506488373015942 -0,483486397566454 -0,45128371405027 0,309320915845892 0,0569191822726365 0,275989761687815 -0,253520092650807 -0,345365133888023 -0,118425572698896 -0,0764617258611336 -0,379307178082135 0,470915781603317 0,0838957579463707 -0,272063825611123 -0,106493411387957 -0,00512279952197857 -0,235142742626716 -0,0628687104178665 -0,0266656453313526 0,653347914611672 0,342718191278351 
0,389136509338532 0,196439499543875 -0,475695190230024 -0,445465928517024 0,0567138408267609 -0,256965699387041 0,152347658606982 0,598983584941593 0,18920511554793 -0,24723005655348 -0,523787529271017 -0,483886673642633 -0,208619579263093 0,29385442581494 0,445755961639757 0,360475676387063 0,180582534813033 -0,355473603128819 0,602757983107418 0,38360417573814 0,25866845194162 0,000670424212949568 0,0356328533610059 0,284158696906911 -0,15651377176336 -0,0957488367067762 0,00667669925420953 -0,28000350417593 -0,0562041727081474 -0,116526376415982 
-0,0086174536120728 0,0548913355490689 -0,264758549960064 -0,32005932449746 0,076565267503227 0,182792109981384 -0,198997661853538 -0,398617455056789 -0,546609597844801 0,0809421875421276 -0,14048516584556 0,0674032899421525 0,367308960926976 0,458238581833878 0,063461326714729 -0,441858073091223 -0,138512005263101 -0,0202034907223138 -0,364570727537508 0,393275061203458 -0,105399274163624 0,447574124596838 0,515202486984444 0,339963762880884 -0,0989971131396978 -0,327255453353268 -0,182594837031521 0,173065385407824 -0,360280005620515 0,352207048031384 
0,649444292903408 -0,0674199784235978 -0,316144930372259 0,0500753027408783 -0,506599133626378 0,0282277230920902 0,140847374561421 0,27942421467598 -0,480040312650704 -0,454250723880395 -0,238897567684701 0,0695300450934845 -0,673873310082313 0,698043822918145 -0,117180441076699 -0,655514542028078 0,276390244524864 0,318156756656951 -0,739867666363241 0,0516202484467893 
20 15
-0,516215818131343 -0,0784549433284733 0,10367886462335 -0,0981313008162447 -0,225308889366691 -0,0740791503940477 -0,120098786772094 -0,0014606416147897 0,39245360162377 0,590546065701138 0,21531639315227 0,368178903454758 0,696346317608365 -0,0715848270171454 0,445445341663937 0,221267642356189 -0,0790065443666424 0,337731486594108 0,608894699168551 0,14528619063138 
-1,08826739772763 0,790358670427808 0,518124265424585 -0,0582781589239198 -0,410946893554387 0,442590888407195 0,410706336590625 0,421863374163534 0,194390187048922 -0,329259172499712 0,269324673542228 -0,0340145790426882 0,200628480259841 -0,394748423226551 -0,0630085684423621 -0,465901369879153 -0,0317413326439334 -0,684923196118997 -0,0827751765830239 -0,329378379352064 
-0,231575178281057 0,220590210592692 -0,19724850571436 0,0308523869909621 -0,420520427081759 0,396848928602266 -0,318564841704907 0,404448351076356 0,292203614568253 0,233009122820267 0,279321576324533 -0,351791756706133 -0,493328740559267 -0,372049147742225 -0,0403654185914303 0,208752637394398 -0,115106518183657 0,280155222520397 -0,183751173405646 -0,176482658622646 
-0,131880879901215 0,201945517390579 0,203159920064078 0,605412103575125 -0,518561212516518 0,0920565426920988 0,400322548246865 0,174107164064579 0,38521458978901 -0,156591292513778 0,152385627247887 0,384579742511269 -0,451702340220229 1,19305687126725 -0,429140440495952 -0,854597833870429 0,0180890511183332 -0,338427997664232 -0,440815812264378 -0,0338477252912185 
0,446729424105715 0,123863118812441 -0,585914408742236 0,477755739282439 -0,753078956456556 -0,185808105419435 0,115827012330321 -0,0913636411358316 0,0471877681097012 -0,682994840658689 0,346235926663753 0,0921369802035256 -0,403133240428298 0,721667087523208 -0,40053470327034 0,284147992500749 -0,0723514292759074 0,465998968452523 -0,458313973842994 -0,276635036145957 
-0,773860250735094 0,684721305927039 -0,19871957232234 0,503833797731527 -0,394198969411903 -0,336053077648079 -0,013031870780765 0,0858958503084745 -0,0367531265212978 0,128242653314658 -0,29516979945803 0,799173465427489 0,232011111146032 0,0429092530219213 0,539148789571918 -0,0570025572704438 -0,689430902006243 -0,630650206075043 -0,128656427207559 0,387051347342567 
-0,718433628079237 0,131053930763017 0,339152586195645 0,579149624631927 0,51177128724119 0,365865739213308 1,02309370631787 -0,449332756592547 0,233016340313851 -0,0401082608314331 0,772933057573622 -0,15977960993657 0,580197326405636 0,37481928657851 0,518091223540963 0,098668911004062 0,318491302675748 -0,725209562886182 0,514688516090777 -0,328229942269233 
-0,267612534114318 0,0499743228656405 -0,112186780036684 0,456814321229947 0,587993222502648 -0,141991200935086 -0,0634490386580158 -1,19183771875008 -0,291925989311343 0,721119226341555 0,719231984331622 0,0172874787841162 -0,00919980654758362 0,394720259928801 0,089734826997845 0,0446099934727467 0,442674690305657 -0,214661615319953 -0,0637303347264084 -0,248069126899728 
0,748107135370545 -0,239887096811085 -0,411318539825384 0,339837661460494 0,798067109887697 0,345389647589278 -0,503660009659515 0,475903687833923 -0,133811329756054 1,02703013776666 -0,102156718097825 0,293770145373656 -0,610460443410221 0,804602427642711 0,399106904917609 -0,275244182667233 -0,632079077633858 -0,12674202147535 -0,197318030266637 -0,208260057074884 
-0,61372418062403 0,0747276315556848 -0,497230476428001 0,0561270278190553 0,602518958146781 0,000202131036553525 -0,561540530868116 -0,154750405189979 -0,554226179402907 0,782253142211541 0,116822200237316 0,257383019967509 0,607801981420817 -0,734636504092206 -0,159794590073864 0,7434619217741 -0,221963935117207 0,312103335195163 0,462484254415702 0,0797647663703783 
-0,337640022962778 0,195278140184016 -0,39381809428066 0,526258519658979 -0,525162632932431 -0,316675350935517 0,0106572787303541 0,768813650084916 0,355195006967655 -0,704041969528255 0,423349459195812 -1,09904457778696 0,650420666995753 0,261412497840001 0,349531869767029 -0,0226462562876347 1,01112542973607 -0,491135234401073 -0,18501042826634 0,0392090367639214 
-0,40707027761591 -0,35686354984548 0,47768539348501 0,017879050878573 -0,343945467416886 -0,140151709304588 0,0546172730823897 -0,162643109912386 0,542903276064166 -0,209123350840921 0,241254150198919 -0,397691179460914 0,490644504842574 -0,636919237998069 0,276807802469971 0,0911219360538066 0,128981446156498 -0,0694031763595468 0,316702308008443 0,224993113240357 
-0,491657682560445 0,410496242959443 0,398598497279478 0,387402053642606 0,551677297254981 -0,190024020924426 0,20308665505679 0,112039655326115 -0,0796336025484736 0,397563172262876 0,245604270708108 0,394270144796634 -0,0297051544252819 0,150706889991686 0,58765315205609 0,29178059046381 -0,483030346681493 -0,769424580258828 0,255269194142425 -0,398737621894864 
0,408358380095562 0,0803091922372711 -0,454805865565853 0,412886302664275 -0,325857388543994 0,382437886833001 -0,465688999481061 0,491608616729483 -0,398429460376344 0,00631697062056284 -0,0453197417461074 -0,334022327472934 -0,124105090391508 0,495341794286715 -0,353846186100775 0,387607389501667 0,250023671958112 -0,157778035200266 -0,543730618694378 -0,334608538739193 
0,346533346122987 0,0646637961326585 -0,427004433872776 -0,00888928641479809 -0,283322331184803 -0,0172028347283332 0,391428370174242 0,519344837570025 -0,151792553344904 -0,207846878456994 0,251182482810079 -0,0109748715329311 -0,644323610239337 0,233830241619175 -0,499639772260776 0,291169808040014 0,315707075114252 0,281943738958462 -0,266758378717808 -0,211060375804707 
-0,592257330089106 -0,471253644686598 0,794792643960908 -0,233538969655259 -0,0218567413312635 -0,470020724085286 0,339082610282055 -0,663735649461006 -0,110321026188808 -0,3427492575611 -0,542718319200697 -0,327122906349423 -0,316470606259411 0,636546367662754 0,610575725785901 
15 5
-0,325118973082975 -0,704890574343134 -0,343298661824869 0,740455558356245 1,50270514775992 -0,64604959195645 -1,11315664185025 1,13525825362262 -0,168169480907814 -1,19467504622753 0,154980308210025 -0,00497261028407833 -1,07353666903315 -0,422670008169366 -0,141818333230513 
-0,702971767156715 0,891310151896253 0,980510257513938 -1,32730698385143 -0,104378349875756 0,507515288553459 -0,869694563011979 -0,106039375966502 -0,477649396689135 0,964692914116156 2,19931671779267 -0,44680082275516 -0,289491954704862 0,337364457466036 0,272926383015302 
-0,152847091758183 -1,1451386539907 0,352542809509911 1,01568900276961 -0,489649235647705 0,602944830389378 -0,212695012048198 0,0945533412942018 1,67336956965129 0,640201481793649 0,0693859354082449 -0,733867910749258 0,618285338497167 -0,15259954288623 0,562378482455153 
-0,294969002814092 -0,813490178495738 -0,0303166564003684 0,301425175537995 -0,830408160745767 -1,00621014946123 1,27873756755519 -1,35609499979916 0,120639768350595 -0,681930169153563 0,551248065786747 0,218497220601066 -0,184136122231515 0,395420069472026 -0,121990762238967 
-0,901120867677233 0,862429071078495 0,625473820600783 -0,583957527729623 -0,208645063757218 1,47934565638152 0,849058138848198 0,405789330680882 -0,367336685425425 -0,316807591976237 -2,25648004025612 -0,462107141242956 -0,220626350030746 1,10879219564215 0,507295158114245 
-0,521979199167207 0,839832564715977 -0,0319671435789022 -0,0988307766467176 0,332123401433559 
