4
2 30
-1,32871081659808 -0,204963256729871 
-0,946074657266206 0,306821316943292 
-0,0839135336960002 -0,996437375798365 
0,425289032977318 0,239696825364357 
-0,71907268690211 0,444872263983198 
-0,00306573236727415 -0,212417949672019 
-0,06971121002999 0,486675459618693 
0,60519235902692 0,151942155106457 
0,647462639179106 -0,420167452042722 
0,813577437675297 0,859479956268446 
0,320068839277547 -0,734846406490091 
-0,207344933786961 0,008104268882118 
-0,112020552280479 0,89313254999116 
0,415412662510633 -0,0738717081116903 
-0,331060349450746 0,730458255468405 
-0,49037305915456 0,676563109190163 
-0,627984054457186 0,239324989976458 
-0,711186463975434 -0,548704334492538 
0,0958486609581586 0,629506177081387 
-0,444618386228339 -0,238273650967611 
0,783777338118764 0,241548213132451 
-0,0294100019502568 0,40234765365292 
0,784683679602908 0,600570795835972 
0,518579734052798 -0,635152300405699 
0,407266866179079 -0,361703302030431 
0,128276450644251 -0,252120022642712 
-0,006128010008802 0,398518774744948 
0,682244354375405 0,355861252221154 
0,182890308680144 0,420422724257763 
0,643704094280364 0,964720784928725 
-0,948904621579074 -0,765445377395723 0,175080969053204 0,260349558719139 0,0683152692869793 -0,421808774889248 0,645139976588645 0,421627413675692 -0,583519443612255 -0,719222160130675 -0,448730797957127 0,572783582499316 -0,432402860127294 0,0449505411449967 -0,411504725468103 0,0482449018799736 0,0805621635871407 -0,949624986249704 -0,11693479373133 0,391727543472718 0,0650793930237245 0,55617905686182 -0,633112981035839 0,267603654481582 -0,498566431508328 0,481461866240432 -0,533287541296656 0,290617927105388 0,348400953046584 1,24658956640645 
30 20
0,4443927700719 0,605743718382937 -0,259774144770392 -0,320376877851187 -0,357404677166463 0,0883354385653195 0,353094391895904 -0,171112515651744 0,0605406547156441 0,045564963038397 -0,303374506853246 -0,369183720586259 -0,221480580094887 -0,106617211910805 0,297367900289242 0,291132302132727 0,560305174772677 -0,113054042352158 0,441227057406793 -0,428945863979186 0,435013320083189 -0,375970860305201 -0,342942920906259 -0,574797591961749 -0,0277604608394228 -0,535923051677085 0,405673429595949 0,142345353634265 0,210132963480453 -0,336604870785772 
-0,50037240141842 -0,412636453278877 -0,383745207452575 -0,170910737520265 0,447213369599794 -0,00328100811211288 0,694226724146753 0,187704554165249 0,204558367624855 0,30177160816695 -0,754544696905093 0,45585831553 -0,318104408665341 0,0782823349194668 0,208145942566836 0,191920490817294 0,0885006528243025 -0,684585122371187 0,0772337484147746 0,241499136604813 -0,10046831544779 0,512981632253675 -0,0156300398102454 -0,463853450872204 0,0357697863229805 0,305849551961121 -0,24382386518164 0,314313496588498 0,509882543899242 0,724122717768736 
0,34144510511708 0,0444497845195677 0,436726725567239 -0,512446026345715 -0,590540055812733 0,43281082251064 -0,259439783491411 0,206840473442864 0,661012138662317 -0,351447616558213 0,525580180422882 0,281063951557927 -0,587982146530169 0,451950029328762 -0,353849349966566 -0,549319923571047 -0,0910868377691681 0,45394353458272 -0,05365567346393 -0,113613353753436 0,0968706401722096 -0,59960333500901 -0,026622031952754 -0,0515874032241768 0,0676223721110281 -0,0592503298225861 -0,459950482703831 -0,255138246752824 -0,567274851358 -0,476866722477316 
-0,167575700831645 -0,436896773132319 0,432749576996134 -0,265297879218766 -0,310062102268858 -0,177645568008245 -0,0602732303305137 0,00344585289538531 0,278429695051209 -1,00995922977335 -0,0513992133552642 0,057977640938793 -0,0622516038553344 0,251003448054929 0,210521186877346 -0,0633743077964743 -0,288146669009426 -0,160506173738868 0,0669364467142434 0,380826432020147 0,273696497923317 -0,165797907716869 -0,479163445741072 0,305326708284799 0,184134779779268 -0,282575373705662 -0,115990143090017 0,0796731466340873 0,0521874775295391 0,752251499643635 
0,288878982862459 0,274517818929737 0,462951804040949 -0,223528722708502 0,515031065925536 -0,201986753163614 0,280695450257322 -0,464917596432488 0,0686682451656011 -0,759476511426055 -0,314053373902035 0,490899150928003 -0,120482777998471 -0,36433191401705 -0,014400534823805 0,474846180866059 0,411391273299552 0,135979877826349 0,265418815799341 0,47486546837253 -0,0710250247332369 -0,115166099011053 -0,255835735897975 -0,443635716758383 -0,497479520130245 0,248050367728362 -0,544103838765442 -0,0807342096091717 -0,434600900984361 0,260553893997839 
0,721040649047502 0,676680469575345 0,291888721128871 -0,112341532918972 0,656276027771037 0,198122192349427 -0,13613005269549 -0,56924707052209 -0,339443526739826 0,0458210501926336 -0,0957699104567589 0,288812635559943 0,458242768942296 -0,120077119650102 0,299298611121976 -0,138409514648657 0,0985243785300754 0,0280513035220847 -0,109617891772203 0,357356070601257 -0,576043471757808 0,305915186842074 -0,459098955872614 -0,36409760172754 -0,144039163496593 -0,39190494782816 0,213320930305612 -0,550432745131973 -0,426802974523962 -0,545153793239135 
0,438629447423403 -0,444769042403443 -0,387396930649078 -0,074301067274359 -0,339438899324793 -0,109079717933121 0,375175133734333 0,108742731467479 -0,515249910797021 -0,207260459359751 -0,17735531671121 0,114116564237419 -0,179389230075538 -0,437137623669391 0,0867111008785341 0,363464311757662 0,203091748132457 0,0609447294469958 0,183420288236149 0,219175569023448 -0,112482750259494 0,349868840839314 0,446817940097919 0,239235582987688 -0,556276385471602 0,258784314440582 -0,0685328050210098 -0,370193128604864 0,319303198099942 0,475207891752284 
0,402663821201897 -0,255019293661676 -0,23778908194471 0,177560022648981 0,339713659282816 0,0487695425499574 -0,263203371950223 0,0544992255449361 0,00385027434265293 0,31973553665072 0,024770413292175 -0,338173383384745 0,334470020265519 0,00818894263362934 0,0431943413413657 0,418179773476697 -0,0766382128072203 0,257232459228039 0,00156866093925825 -0,475925633225271 0,110106275097868 -0,0222788169267317 0,200292340143726 -0,0750071239751744 -0,302724942189805 -0,521288789257944 -0,00827154566479844 -0,0382365852450368 -0,135687323004869 0,529529012183005 
0,501778210347258 -0,207351986292218 0,421376577738455 -0,154479901537723 -0,0708796785495356 0,402836711094663 -0,175707390176907 0,134267337518158 -0,31394207133786 -0,0586422198934562 -0,297856532011359 -0,480729853742037 -0,419564329271544 0,214109543831888 0,16320797576704 -0,137657065812237 -0,188623146975426 0,464225847912032 -0,459383358325655 -0,362627589765109 -0,322402324548388 -0,284716524152154 0,362491023670762 0,254505986457118 0,187238237656894 -0,0485548079398018 0,427771986733693 -0,280122654322586 0,0358333895444347 -0,639329783715345 
-0,200260982921574 0,126489941369132 -0,514966568250544 0,245448799355284 0,384845041275326 0,132353281006107 -0,572535477740961 0,314269762808409 0,544345627964702 0,630227074277249 -0,403790690840234 -0,367241730062398 0,246836042172178 0,0582059524994868 -0,110205671744182 0,00345979223641374 0,216828590598045 0,161187790083591 0,276666989725569 -0,511831650541944 0,259922956269595 -0,244200731049338 0,590400587101951 -0,149771865759907 0,000861294814940094 -0,283360489765579 -0,17435808120849 0,464563576594901 0,381133159590678 0,355115941930074 
-0,619813573228939 0,36960370814917 0,0888455849694358 0,270700337994495 -0,164564184329037 0,545071916386008 -0,586456910847448 0,120293262493696 0,520295047401868 -0,533476003512582 0,569900718682938 -0,495323660584417 -0,315530712302212 -0,0444414310945797 -0,345455629513852 -0,514536526774995 -0,352400584644635 -0,474788156839376 -0,441592950931735 -0,470012976406996 0,267554455278918 0,312669999594394 -0,527064692974204 -0,116656548395511 0,570746689812735 0,141558723347969 0,209299636505464 -0,0350355512281226 0,0949595065437326 0,243865657440645 
-0,611450168704349 0,439205410997614 0,173357873078465 0,416001235285965 -0,217443481104647 -0,364020737503909 0,312378402640562 0,409696747142399 0,0398362998129311 0,31712306959418 -0,515728532600273 0,467413021210894 0,444519812046051 0,356264544134341 -0,212169100357643 0,218691068484082 -0,472717005729881 -0,383486285583456 -0,273283588022693 0,37874233140087 0,189987335602719 0,413823878301841 0,436602428988004 -0,205172670298543 -0,295280710074138 0,27514429239005 -0,160065330757563 0,39772308600711 0,35012509981555 -0,00977715028527519 
-0,491238206616901 -0,240430363273203 -0,31886863502263 0,376577362875659 -0,34263329166182 -0,0136255798646558 0,0580439837756371 0,4975654815872 -0,528819971994113 -0,135090190446618 -0,117221164326753 0,0630178808731346 -0,306768711990979 0,218669147316646 0,357597687123854 -0,179154370322892 -0,0144963097687603 0,254678399354939 -0,524844771123426 0,244475681752608 -0,377194189045397 -0,0409548255550168 -0,138469296755236 -0,0381922093245642 -0,395964852716807 -0,303082738285465 -0,178983244791022 0,010075670338231 -0,0116812645508363 0,337823478358679 
-0,528780399700456 -0,339058061803619 -0,156204799014912 -0,496948093680841 0,117378095769159 0,245624600937148 -0,489055810885595 -0,394850488119191 -0,339639183809667 -0,166322913783724 -0,145874802968404 -0,338749994037915 -0,14279380645406 -0,33388019723662 -0,231274516709357 0,0611198884363142 0,102554059825932 -0,203296604911808 -0,0863505171244153 0,477023515563303 -0,538396662884839 0,220712327770819 -0,0561908573662127 -0,0656161808524674 -0,000858474476598808 0,371517271095319 0,0542765865398584 0,024725226030181 -0,565181748913075 -0,498104964062381 
0,0516677477219935 -0,35548717044358 0,197411622083122 -0,0812731855961548 -0,213018900928272 -0,429850611766056 0,262736207958275 -0,185787684122321 -0,00939354530472889 -0,284900674721065 0,123525546821683 0,344517390664534 -0,523829671447936 0,388532582707315 -0,294852436227628 -0,476529289111006 -0,143153682352772 0,367505995387986 -0,15114841094139 0,46061558339624 -0,287606010263393 0,418815617583372 0,269789853720188 0,406481459217867 -0,294274043398237 0,191373226080187 0,237093948247039 -0,137313530234381 0,232727157285758 -0,503279581061238 
-0,345590890407317 -0,202616396817827 0,138020564597772 0,193041777249453 0,481295884038819 0,390482013993037 0,119371136219282 -0,527135316908016 0,0364593779256282 0,444346722580959 0,488728385377817 0,404986058495281 0,0832503782829917 -0,129044177112423 0,543906546785955 0,0637385587894116 -0,0653978812481604 -0,25124985656192 0,331088201004848 -0,16164081700073 0,316719149792655 0,0378330194971023 -0,260594955895964 -0,00870348047012728 0,0985858860919479 -0,332560950152333 0,258664924963805 -0,281350836968663 0,176321012626202 -0,394741151276908 
0,0659520978028901 -0,261592258259742 0,759938442592587 -0,0352513312927233 0,0652364741464164 -0,0324778006034642 -0,35148485138897 -0,082551362377255 -0,394370015338449 -0,175346958894039 0,232010833876375 0,441607984726643 -0,85702285436411 -0,0966512560717586 -0,818915358471804 -0,215901432664376 -0,0478160539646034 -0,228415139774596 -0,614331164972316 0,0867699521122275 -0,32649639163681 0,375721575013881 0,0101026576353961 0,257819214682622 0,0489492366873779 -0,202922639988946 -0,574473023771738 -0,257518489018432 0,129573180374828 -0,277617424329446 
-0,445748759997979 -0,486574091010099 0,154426056533974 0,0569260065870585 -0,197678092338296 0,0411761221152459 0,450526241422919 0,0508143275544664 -0,233897598231647 0,0271099760338953 0,340970924465037 0,139040762793206 0,0509370636227823 -0,197847188988333 -0,0487515641618895 -0,531654311719934 -0,432659081282862 -0,423494518919061 0,327377865058043 -0,356202000373987 0,582023015129883 0,116189138838208 0,410367895288733 0,664432584403319 0,0951225074939223 0,272440349627253 -0,0724905110193868 0,670025961326612 0,122312270350158 -0,0254601725977548 
0,307293531686192 0,396319459406493 -0,49936059610981 -0,164716264995099 -0,10258400707156 -0,0518094149930758 0,397470637594451 0,0451404068946029 0,538375087018048 0,388535132434317 0,40709862566577 0,328652976508382 -0,393011000569456 0,00981776054539802 -0,176751047168539 -0,524434741562009 -0,114129750893964 0,477034130064176 0,45879835417511 0,320244130836573 0,535820970890067 0,376339628628539 0,750407863316402 0,203627267354657 0,340477124886661 0,0575530383505865 0,211478115700952 0,390067463386032 0,254235129077632 -0,518777292415395 
0,513506576686806 0,568487640967687 0,0845437261459397 -0,415694810954415 0,259938509964777 0,150805267253554 0,144619665866164 -0,431525902579313 0,165661536043848 -0,339575112967175 0,42908038320662 0,431669559650432 0,209876710253382 -0,593806225446098 0,282018126290103 0,210492183860723 0,0187175973415639 -0,0554762769239981 0,123974843638305 0,421870803443692 -0,438479437211254 0,141470328298943 -0,242395548486524 0,332875440832627 0,264511146231084 0,406958287931596 -0,0834459514693803 0,0264638105184844 0,334817825871758 0,148068445764668 
0,0978410224271858 0,227619674157361 -0,520266729977627 -0,464526765087197 0,529465617347916 -0,653074685588336 -0,0876146019394069 0,0719973571685704 -0,00296464528507595 -0,642714520878542 -0,545347724431923 0,141771096385441 0,697259680046621 0,385606098342226 0,0146567441172648 -0,540992461445267 0,248127830774204 0,515813244153903 0,262446739132969 -0,448711512116866 
20 15
-0,320188377895376 -0,83889240733294 1,38692643623093 0,140578297728739 -0,0886756549184394 0,0882256454947333 -0,541329556188279 -0,0385168104692241 0,710000233662463 -0,656094674717762 0,265749466029136 -0,506417828222713 -0,425205883457388 -0,261553712845314 0,53996529622957 -0,405063689013879 0,0202787484040276 0,445676671568904 -0,0525981930411398 0,332305482438528 
-0,322785821635994 -0,151408206086141 -0,0982907407196204 0,289630527982702 -0,490496370628147 0,323803231849518 0,140818393637318 -0,0223055907525642 -0,0277621920312721 -0,203818799207165 -0,275507539056739 -0,189594526299724 -0,175727701378632 -0,135134482272794 -0,23821423754275 0,471521956773224 0,360316360254065 -0,41255336192258 -0,0428809226442024 -0,157119413755984 
-0,0937923629634389 0,192443231195686 -0,232076137795083 0,608971969969977 0,248220717917861 0,369557676320794 -0,0209598366604573 -0,0407370854887264 -0,19366961300748 -0,656191841554043 0,308424879348441 0,443874604258558 0,181259146309653 0,441070546156299 0,450209152907219 -0,644075697612696 0,565637748694617 -0,374201481214237 0,0918450933024473 0,205068699077142 
-0,661554989073916 -0,339229006180917 -0,244388993520446 0,422907116817509 0,292345411142913 0,0669726580249924 -0,0291860091815725 -0,285312226553292 0,0076357678885059 -0,0752805039450348 0,324588634473322 0,0181415375267178 0,363309347468564 0,293543950074189 0,37265254758387 -0,300223014950131 0,798562518035327 0,128910972391885 0,319474949271269 -0,489221532606195 
-0,19757919711655 0,36570377240961 0,261357795143597 -0,217337143211583 0,41408376786792 -0,0365395008523302 0,223357911166617 0,396917748510297 -0,348035351785352 -0,531889003040127 -0,154649507803023 0,276834901366423 0,691355322469488 -0,0733929893074577 -0,0972396478784993 -0,324880022537338 0,521435168971897 0,382144514411273 -0,395395566439649 -0,33690974332218 
0,204866266411264 0,537900941552365 0,115966411583357 -0,145310831407145 0,995555935845448 -0,780826570170096 -0,622588529466791 0,0975190498261433 -0,0411559477036125 -0,150588941096672 0,79899381885011 0,501215708581729 -0,00340595086048699 0,290180179502912 -0,474703803154706 -0,0812826825810141 -0,164889386881616 -0,203318210689476 -0,557308610210981 0,139407183963531 
-0,321818474331205 0,21140947756349 -0,099665495056209 0,171907002729721 0,385180175239559 -0,240939745224518 -0,126618384160141 -0,411101614719395 0,526424425899264 -0,0131084775758072 -0,00388412890487778 0,392679884519005 0,452839251584676 0,119482764689045 -0,378759947890829 -0,395499446890826 -0,176886073948095 0,199581816123943 -0,267007042820833 -0,159086706475687 
-0,105697983867127 -0,324784445977561 0,392017124869145 -0,798288171714278 -0,251965231493789 0,454779500217066 -0,0656019097264583 0,417298254188615 0,10760568735435 0,784061707630084 -0,838012732892003 -0,161296672689769 0,653741790007216 0,0627236781189376 0,307562529542978 -0,221040218977963 -0,4758028529577 -0,414410750362201 0,435933501467233 0,411364157265526 
0,34224324755386 0,626101854849414 -0,41648608126215 0,396379046508534 0,045038909491986 -0,253095447869551 -0,386454800000762 -0,279643595870125 -0,432941934498382 -0,261383230823402 0,360507305000683 -0,068396462345529 -0,459275693216674 -0,551850057247936 -0,108989926468482 0,0413684943742555 0,478780948564754 -0,377306255870105 0,336522425082793 0,506532131066998 
-0,026627652628534 0,716355185255374 -0,151624795277685 -0,185192379884889 -0,0893430450221344 -0,893543096132411 -0,167498891083255 0,497698566320923 -0,850315596175146 0,134586606539767 -0,110900780634155 0,545576600416788 0,252729366919732 -0,41807642472237 -0,380203702723967 0,00195693783653993 -0,797220674259242 0,302689439122059 -0,0208366032663928 -0,546466364822469 
-0,0430196063202371 0,0936033290262507 -0,526218272550939 -0,705919714339646 0,362054305024676 0,219058148729128 0,395290751771182 0,177264809694982 -0,0414901480178134 -0,363558933212891 -0,804880086281899 0,469022225144967 0,139412486840559 0,107629189047201 -0,293331088808913 0,0191996262435845 -0,111596387268781 0,381522442066818 -0,566627551211067 0,201358670333335 
-0,553772409581628 0,680984918919006 -0,0453564746687578 0,523949019578544 0,0493245056494495 -0,236374681976093 0,294305011611389 -0,171584447568652 -0,0613145616707344 -0,0968720882590519 -0,00436614119953706 0,618979015963958 0,0511113873065988 0,339878705276678 -0,475911778852608 -0,149079539625993 -0,316614514350459 0,608276210418025 0,00317755706617494 0,110229564931381 
0,274240053542302 -0,150650194711462 -0,0320120014172057 0,0545071319052478 -0,183137584566048 0,445995866662564 -0,410173493091356 0,238497266262725 0,0787211448433278 0,10357249609515 -0,0392436031553457 -0,220103768390548 -0,186019964535883 -0,0796773710294962 0,231594559333499 0,508250489368413 -0,317856664234474 -0,0432964541972095 0,376891017373072 0,416267646208274 
0,256139364104526 -0,183772147870154 0,403896786466204 -0,518213427212164 -1,15026215354071 0,704322916430958 -0,275631207759958 -0,139904383524008 -0,259004494662579 -0,38757051567796 0,0310348138843136 0,606249861271008 0,678561175049593 -0,253624624817054 -0,0503690203477512 -0,50432189817185 -0,24993864184405 -0,794358273486514 0,562536953223838 0,325897367650979 
-0,421434048887567 0,301319458134648 -0,30306435521367 0,0207390091147884 0,322989244312614 -0,0275336423496542 -0,365597254768259 -0,0217329551631704 -0,33174252282229 -0,719342458248153 0,192551345831841 -0,461365218137014 0,361515725358469 0,380969179485371 0,451384875531029 -0,0402967186597058 0,0569394515285966 -0,525924255289632 -0,433986958663712 0,617728038269833 
-0,357445625332739 -0,254065122233982 -0,217101215334288 0,713935520103612 0,164669173204033 -0,3199134497902 0,202614548000151 0,406163926209363 -0,370280096471032 0,292171400314131 -0,150664159593516 -0,0394624579272202 -0,386762876367876 0,328744981003713 -0,0885406469107434 
15 5
-1,03920215260376 -0,0687443703747561 -0,281713256363978 0,95886097107611 0,473539805431514 -0,670740954245353 0,1609547304569 -0,0350301447692788 -0,460546115328102 -0,823507833743968 0,093629017473803 -0,215570084112476 -0,450817922589449 -1,29021928808639 -0,372770048891414 
-0,786560727022054 -0,198617050013732 0,676068895422959 0,128723042627246 0,132289557497664 1,27992338254547 0,16067229745954 -1,02829996417909 -0,0907581068375548 0,225187478693265 -0,0429579773938405 0,537675341378292 0,0520207654468384 -0,425025693066754 0,655233211464949 
1,54669533778023 -0,399879386443435 -0,640709965311036 -0,166838129119329 0,614229151067469 0,537845955081863 0,49005432434701 0,240763316817095 -0,757832993481594 0,953101853969091 0,470424763529695 0,271966616847297 -0,0639506345321099 -0,3203571271994 0,485719933881904 
-0,597761233556098 0,310025985738167 0,897602781249684 0,531716103772214 0,102247717710468 -0,87395274249491 0,0929540689100714 -0,0553825191433934 0,393160507699061 0,778096695153214 0,599357077762877 -0,437134130323367 -0,495901780837705 1,0057007945964 0,394293163173175 
0,47382584257978 -0,174264558209715 -0,423651826084368 -0,102017600776923 0,735255320001896 -0,369627063461891 0,523461631878807 1,04239494751964 -0,432473977137818 -0,419428309201636 -0,843675494033651 -0,0752356434259241 -0,507831674781956 0,930591962638223 -0,383093898837785 
0,418009547433308 0,23783661908278 0,128372403829292 0,0425332964342355 1,19786991616971 
